digraph Tree {
node [shape=box] ;
0 [label="X[0] <= 2013.5\nmse = 0.051\nsamples = 550\nvalue = 4.618"] ;
1 [label="X[1] <= 0.5\nmse = 0.056\nsamples = 250\nvalue = 4.557"] ;
0 -> 1 [labeldistance=2.5, labelangle=45, headlabel="True"] ;
2 [label="X[0] <= 2011.5\nmse = 0.08\nsamples = 110\nvalue = 4.573"] ;
1 -> 2 ;
3 [label="X[0] <= 2009.5\nmse = 0.039\nsamples = 65\nvalue = 4.608"] ;
2 -> 3 ;
4 [label="mse = 0.048\nsamples = 24\nvalue = 4.592"] ;
3 -> 4 ;
5 [label="X[0] <= 2010.5\nmse = 0.034\nsamples = 41\nvalue = 4.617"] ;
3 -> 5 ;
6 [label="mse = 0.038\nsamples = 20\nvalue = 4.615"] ;
5 -> 6 ;
7 [label="mse = 0.03\nsamples = 21\nvalue = 4.619"] ;
5 -> 7 ;
8 [label="X[0] <= 2012.5\nmse = 0.134\nsamples = 45\nvalue = 4.522"] ;
2 -> 8 ;
9 [label="mse = 0.143\nsamples = 21\nvalue = 4.495"] ;
8 -> 9 ;
10 [label="mse = 0.124\nsamples = 24\nvalue = 4.546"] ;
8 -> 10 ;
11 [label="X[0] <= 2009.5\nmse = 0.038\nsamples = 140\nvalue = 4.545"] ;
1 -> 11 ;
12 [label="mse = 0.033\nsamples = 26\nvalue = 4.577"] ;
11 -> 12 ;
13 [label="X[0] <= 2011.5\nmse = 0.038\nsamples = 114\nvalue = 4.538"] ;
11 -> 13 ;
14 [label="X[0] <= 2010.5\nmse = 0.037\nsamples = 59\nvalue = 4.517"] ;
13 -> 14 ;
15 [label="mse = 0.032\nsamples = 30\nvalue = 4.52"] ;
14 -> 15 ;
16 [label="mse = 0.043\nsamples = 29\nvalue = 4.514"] ;
14 -> 16 ;
17 [label="X[0] <= 2012.5\nmse = 0.039\nsamples = 55\nvalue = 4.56"] ;
13 -> 17 ;
18 [label="mse = 0.035\nsamples = 29\nvalue = 4.559"] ;
17 -> 18 ;
19 [label="mse = 0.043\nsamples = 26\nvalue = 4.562"] ;
17 -> 19 ;
20 [label="X[1] <= 0.5\nmse = 0.042\nsamples = 300\nvalue = 4.669"] ;
0 -> 20 [labeldistance=2.5, labelangle=-45, headlabel="False"] ;
21 [label="X[0] <= 2015.5\nmse = 0.053\nsamples = 130\nvalue = 4.712"] ;
20 -> 21 ;
22 [label="X[0] <= 2014.5\nmse = 0.076\nsamples = 46\nvalue = 4.639"] ;
21 -> 22 ;
23 [label="mse = 0.058\nsamples = 29\nvalue = 4.631"] ;
22 -> 23 ;
24 [label="mse = 0.106\nsamples = 17\nvalue = 4.653"] ;
22 -> 24 ;
25 [label="X[0] <= 2018.5\nmse = 0.036\nsamples = 84\nvalue = 4.752"] ;
21 -> 25 ;
26 [label="X[0] <= 2016.5\nmse = 0.041\nsamples = 64\nvalue = 4.731"] ;
25 -> 26 ;
27 [label="mse = 0.06\nsamples = 19\nvalue = 4.716"] ;
26 -> 27 ;
28 [label="X[0] <= 2017.5\nmse = 0.032\nsamples = 45\nvalue = 4.738"] ;
26 -> 28 ;
29 [label="mse = 0.029\nsamples = 24\nvalue = 4.738"] ;
28 -> 29 ;
30 [label="mse = 0.036\nsamples = 21\nvalue = 4.738"] ;
28 -> 30 ;
31 [label="mse = 0.014\nsamples = 20\nvalue = 4.82"] ;
25 -> 31 ;
32 [label="X[0] <= 2018.5\nmse = 0.031\nsamples = 170\nvalue = 4.636"] ;
20 -> 32 ;
33 [label="X[0] <= 2016.5\nmse = 0.032\nsamples = 140\nvalue = 4.626"] ;
32 -> 33 ;
34 [label="X[0] <= 2014.5\nmse = 0.031\nsamples = 85\nvalue = 4.64"] ;
33 -> 34 ;
35 [label="mse = 0.035\nsamples = 21\nvalue = 4.61"] ;
34 -> 35 ;
36 [label="X[0] <= 2015.5\nmse = 0.03\nsamples = 64\nvalue = 4.65"] ;
34 -> 36 ;
37 [label="mse = 0.027\nsamples = 33\nvalue = 4.645"] ;
36 -> 37 ;
38 [label="mse = 0.033\nsamples = 31\nvalue = 4.655"] ;
36 -> 38 ;
39 [label="X[0] <= 2017.5\nmse = 0.031\nsamples = 55\nvalue = 4.604"] ;
33 -> 39 ;
40 [label="mse = 0.03\nsamples = 26\nvalue = 4.588"] ;
39 -> 40 ;
41 [label="mse = 0.032\nsamples = 29\nvalue = 4.617"] ;
39 -> 41 ;
42 [label="mse = 0.022\nsamples = 30\nvalue = 4.687"] ;
32 -> 42 ;
}
